<?xml version="1.0"?>
<opencv_storage>
<!-- Automatically converted from haarcascade_3hearts, window size = 50x75 -->
<haarcascade_3hearts-inter type_id="opencv-haar-classifier">
  <size>
    50 75</size>
  <stages>
    <_>
      <!-- stage 0 -->
      <trees>
        <_>
          <!-- tree 0 -->
          <_>
            <!-- root node -->
            <feature>
              <rects>
                <_>
                  26 29 6 8 -1.</_>
                <_>
                  24 31 6 4 2.</_></rects>
              <tilted>1</tilted></feature>
            <threshold>-5.5412282235920429e-003</threshold>
            <left_val>1.</left_val>
            <right_node>1</right_node></_>
          <_>
            <!-- node 1 -->
            <feature>
              <rects>
                <_>
                  0 0 2 1 -1.</_>
                <_>
                  1 0 1 1 2.</_></rects>
              <tilted>0</tilted></feature>
            <threshold>-5.0734932301566005e-004</threshold>
            <left_val>0.</left_val>
            <right_val>-1.</right_val></_></_></trees>
      <stage_threshold>1.</stage_threshold>
      <parent>-1</parent>
      <next>-1</next></_>
    <_>
      <!-- stage 1 -->
      <trees>
        <_>
          <!-- tree 0 -->
          <_>
            <!-- root node -->
            <feature>
              <rects>
                <_>
                  30 35 4 9 -1.</_>
                <_>
                  31 36 2 9 2.</_></rects>
              <tilted>1</tilted></feature>
            <threshold>1.1868389556184411e-003</threshold>
            <left_val>-0.9114686250686646</left_val>
            <right_node>1</right_node></_>
          <_>
            <!-- node 1 -->
            <feature>
              <rects>
                <_>
                  8 31 8 3 -1.</_>
                <_>
                  8 31 4 3 2.</_></rects>
              <tilted>1</tilted></feature>
            <threshold>5.1467609591782093e-004</threshold>
            <left_val>1.</left_val>
            <right_val>-1.0000040531158447</right_val></_></_>
        <_>
          <!-- tree 1 -->
          <_>
            <!-- root node -->
            <feature>
              <rects>
                <_>
                  27 36 6 7 -1.</_>
                <_>
                  29 38 2 7 3.</_></rects>
              <tilted>1</tilted></feature>
            <threshold>1.8028720514848828e-003</threshold>
            <left_val>-0.9914141297340393</left_val>
            <right_node>1</right_node></_>
          <_>
            <!-- node 1 -->
            <feature>
              <rects>
                <_>
                  27 24 1 10 -1.</_>
                <_>
                  27 24 1 5 2.</_></rects>
              <tilted>1</tilted></feature>
            <threshold>6.3845611293800175e-005</threshold>
            <left_val>1.</left_val>
            <right_val>-0.9512745738029480</right_val></_></_></trees>
      <stage_threshold>8.5859298706054688e-003</stage_threshold>
      <parent>0</parent>
      <next>-1</next></_>
    <_>
      <!-- stage 2 -->
      <trees>
        <_>
          <!-- tree 0 -->
          <_>
            <!-- root node -->
            <feature>
              <rects>
                <_>
                  28 25 9 11 -1.</_>
                <_>
                  31 28 3 11 3.</_></rects>
              <tilted>1</tilted></feature>
            <threshold>-9.1791218146681786e-003</threshold>
            <left_node>1</left_node>
            <right_val>-0.9463157057762146</right_val></_>
          <_>
            <!-- node 1 -->
            <feature>
              <rects>
                <_>
                  28 30 8 2 -1.</_>
                <_>
                  32 30 4 2 2.</_></rects>
              <tilted>0</tilted></feature>
            <threshold>-9.9392864285618998e-006</threshold>
            <left_val>1.</left_val>
            <right_val>-0.9403067827224731</right_val></_></_>
        <_>
          <!-- tree 1 -->
          <_>
            <!-- root node -->
            <feature>
              <rects>
                <_>
                  20 29 8 7 -1.</_>
                <_>
                  20 29 4 7 2.</_></rects>
              <tilted>1</tilted></feature>
            <threshold>5.7037398219108582e-003</threshold>
            <left_val>-0.9908003807067871</left_val>
            <right_node>1</right_node></_>
          <_>
            <!-- node 1 -->
            <feature>
              <rects>
                <_>
                  22 23 14 24 -1.</_>
                <_>
                  22 23 7 12 2.</_>
                <_>
                  29 35 7 12 2.</_></rects>
              <tilted>0</tilted></feature>
            <threshold>8.4797560703009367e-005</threshold>
            <left_val>-1.</left_val>
            <right_val>0.9820340275764465</right_val></_></_></trees>
      <stage_threshold>9.1996192932128906e-003</stage_threshold>
      <parent>1</parent>
      <next>-1</next></_>
    <_>
      <!-- stage 3 -->
      <trees>
        <_>
          <!-- tree 0 -->
          <_>
            <!-- root node -->
            <feature>
              <rects>
                <_>
                  10 25 9 5 -1.</_>
                <_>
                  13 28 3 5 3.</_></rects>
              <tilted>1</tilted></feature>
            <threshold>-5.7647138601168990e-004</threshold>
            <left_val>-0.9424461126327515</left_val>
            <right_node>1</right_node></_>
          <_>
            <!-- node 1 -->
            <feature>
              <rects>
                <_>
                  29 38 6 7 -1.</_>
                <_>
                  32 38 3 7 2.</_></rects>
              <tilted>0</tilted></feature>
            <threshold>7.9435412771999836e-005</threshold>
            <left_val>1.</left_val>
            <right_val>-0.9191976189613342</right_val></_></_>
        <_>
          <!-- tree 1 -->
          <_>
            <!-- root node -->
            <feature>
              <rects>
                <_>
                  30 24 12 5 -1.</_>
                <_>
                  33 27 6 5 2.</_></rects>
              <tilted>1</tilted></feature>
            <threshold>-9.6842198399826884e-004</threshold>
            <left_val>-1.</left_val>
            <right_node>1</right_node></_>
          <_>
            <!-- node 1 -->
            <feature>
              <rects>
                <_>
                  14 39 8 4 -1.</_>
                <_>
                  18 39 4 4 2.</_></rects>
              <tilted>0</tilted></feature>
            <threshold>-6.3385942485183477e-004</threshold>
            <left_val>-1.</left_val>
            <right_val>1.0000020265579224</right_val></_></_></trees>
      <stage_threshold>0.0575555004179478</stage_threshold>
      <parent>2</parent>
      <next>-1</next></_>
    <_>
      <!-- stage 4 -->
      <trees>
        <_>
          <!-- tree 0 -->
          <_>
            <!-- root node -->
            <feature>
              <rects>
                <_>
                  0 32 26 12 -1.</_>
                <_>
                  0 35 26 6 2.</_></rects>
              <tilted>0</tilted></feature>
            <threshold>1.9527790136635303e-003</threshold>
            <left_val>1.</left_val>
            <right_node>1</right_node></_>
          <_>
            <!-- node 1 -->
            <feature>
              <rects>
                <_>
                  0 0 2 1 -1.</_>
                <_>
                  1 0 1 1 2.</_></rects>
              <tilted>0</tilted></feature>
            <threshold>-2.7852511266246438e-004</threshold>
            <left_val>0.</left_val>
            <right_val>-1.</right_val></_></_></trees>
      <stage_threshold>1.</stage_threshold>
      <parent>3</parent>
      <next>-1</next></_></stages></haarcascade_3hearts-inter>
</opencv_storage>
